0.1571375793498198,0.3458022140788066,-2.435541666568977,-0.08258209392714776,-1.237666243315578,-3.445672521393146,-1.244060608415602,-1.319425941077211,-2.59649991509955,-0.3748553215300112
-0.7654566497918941,2.098155019229262,-2.828229908723038,0.5636812079224554,-2.059090278901049,-0.5744993465204996,4.308455067561201,-0.4856067874632374,-0.8197808964404574,0.1291268168949118
-1.424845315845643,0.7983615641980468,1.371347443143581,-1.985561580176963,-0.9479152712212635,-2.737108263720158,0.1386132834263738,-0.9605918227090446,0.008107402437005766,3.222064556338768
-1.510175319619155,1.689994774843838,-2.432537227470417,-4.108396316124342,-0.02699077669858345,3.467985008466179,-2.299673177718896,-0.622111360855229,-1.298511377539186,-0.8101938515259393
-1.25878567169466,-2.098498593327014,2.319303395370401,2.713240378197265,-2.590488558502712,-1.611103315418083,-4.578980259763681,0.9563654841249898,-4.416802836992546,-1.642196939302445
-1.628263587799484,-0.7225888200466227,-0.1421010957878653,-2.524912310205937,-0.840740526339983,1.65779354510207,-0.9052423855696909,0.472509633637625,-0.4602254128660717,0.02341763394297874
-2.466425838193899,0.4191565314134498,-2.653644047233216,0.3845173271555645,0.6432808659026401,1.056421456703362,-1.659392162770666,0.908908258943864,0.395258006605623,2.917087865653307
0.2910911422827646,0.6989635525649917,1.113502733041426,-2.900847676936276,0.3421831887032463,0.5759346194824159,-0.3689405584065827,-2.364261193693753,1.469139267676197,-1.780806705859514
-1.870820009062307,-0.9119654713703381,0.5676237460749149,-1.275817283581312,-0.9202586138188236,-1.973096568423746,0.9141165994381543,-0.7753035343982075,1.843930489077382,1.819729560038622
-2.471177195657144,-0.170121467732365,2.200221442236018,-1.386492513982248,-3.875340123349776,-0.3959976336132393,2.215524610395755,-3.425393229966681,-2.405015555222473,-1.757309621963214
-3.536179207119507,-0.3008896281229098,1.585646022163548,-1.476792728457188,-0.4921522760138033,-2.039719128090276,0.5202122100269824,4.913044755009738,-0.7214161168850278,-4.902602326192882
-0.6593618140978675,4.849332609970888,-1.649529299720879,-1.710599658443896,-0.07145528183947801,-0.5874373967803124,-0.8047311906411867,-0.7802441711584047,0.1458145131060798,0.257158114504468
-2.734623040792183,-0.5479898611205177,-1.9817463114769,-2.004447464907648,-3.070069264455678,4.441619825944184,3.090958487981396,3.158575620462378,-1.38187661937536,-0.383925308260704
-0.3929258085039901,-4.770337157309864,0.2589469543483802,0.5432109143209428,-1.350254438872664,-2.912543794004661,-2.305025416735449,3.741311622561604,2.809310394456675,1.053035640683516
-0.1729462479379625,-0.316010877416257,-1.359977345161049,2.503251386620367,-0.8911671794917089,1.679574729975602,-3.265797773290616,-0.8914131493089291,-3.002121720106659,0.4929906890672852
-0.2723619987797981,2.067036830365427,-1.750767519184226,0.1799065343078516,-2.488065036045243,1.477163239884549,0.007125191679545399,0.3024438055110247,-2.670030023671629,-0.9654435511393881
0.5731422310428046,-0.538435654697171,-0.7787292782430492,0.3837042251133558,-2.386831556236165,-1.00235174873416,2.129530721686514,-1.675551424059792,-0.749335769054457,3.079528890832015
-0.9420634979911643,2.143126933436516,-0.9652558635699724,3.226248178368287,-3.739118720779881,-0.2739404704850647,2.06345469859641,-1.84629493137521,2.705226745419633,-2.265745946490352
0.3650996138178694,-1.846009787053449,1.914034084518571,-2.829882202761192,1.695880497440758,1.099379118368783,1.060219597808326,-1.942204376804589,-3.58599081279942,0.7205365221334908
0.5491731430661277,-1.861468129432951,1.138964710442176,-1.444608088514238,-2.81206227952044,0.4465871510310792,-0.9150515610636233,-3.523050740544434,1.565186788202332,1.033265881190773
1.166907744330818,0.3124361398773396,2.051381021015516,0.8922706134843131,-2.123084577646322,-0.558473725531587,2.752267280218344,-4.572084859739819,-2.00773791361745,0.2695737881788392
-0.0454533858023187,-1.025749946004171,-3.920930346087845,2.447798708267983,-0.2408858226847291,0.4523000839158461,-0.2435929088534385,-2.25059148824462,1.96054119341467,0.7107408591863368
0.703207680083303,0.2738864694332138,0.3046296903542522,-2.84978754511644,-0.6927161805616563,1.724823221200628,1.154828740485247,-1.674523541084781,-1.200712012523106,3.117438410758047
0.5187169018686136,0.3666412867722815,-0.04315002965482382,-2.170807009039621,1.668215962488464,1.075536392884003,-0.3247692849417679,-3.080719087519897,1.541469856921372,-0.7546517202291753
-0.1888250261683654,1.939261869919322,-0.9582882970547113,-0.4408974862032294,0.4486862751659318,2.4242137717057,-0.2370170305981014,2.985249322336041,-1.822582227426994,-2.241144475991755
-0.5682704505934439,1.257030135828033,-4.456915165784967,-3.382915857709025,-1.008731521246657,2.247940279185499,2.214733620139829,-1.791380226688177,-1.612599780628325,1.344918856555734
-1.577327304514081,2.532895726185163,-1.881196604225156,2.034452929877027,4.60656133911997,-1.875729831127303,-0.05912326258777217,-2.693708246122682,-1.584890172941939,-4.917292628902545
-1.61737511009112,-0.3914939343491668,-2.729268932011204,2.155963066636306,-3.891347461695728,-1.184209013961425,1.194702928678695,-0.2241622933898117,-0.8310299848454525,-1.097064525329395
3.851476908592251,-0.3580222639068595,-3.456381531457906,-2.238836333493109,0.2132408372421294,-5.93943119996536,-4.343781869927875,0.8571361800414031,-1.79330874499865,0.3595066281013197
0.1312615494237283,0.867718407790961,3.450118381491755,-0.4608809756836381,2.391418596080295,1.950468449401739,-3.763041509235779,-0.976623292011793,-0.9415187276248478,-4.074369181778594
1.652452626605285,-0.7105717814110205,2.221134587370137,0.3949103957364808,1.519847457044664,-1.801564366673283,-1.103777010014696,1.711849802954538,-3.614968639763983,0.8232884208138752
-2.481692314083766,0.4675644582330102,1.710957011155138,1.121753187475975,-0.5707244959638603,2.748498972084135,-2.375830842440825,-3.501027975838106,-1.727646678226159,1.371527918021748
-1.590215540795544,-0.2871014604242227,3.86028728448035,0.4727415757240322,-2.49654571479376,-1.110067267666286,-2.630380132073476,-0.2873008569908755,1.430682328492096,0.2819394375063658
1.269590153213823,-2.604179300964319,0.399286750294005,0.5423489615163702,-0.428633787956457,2.429556707047981,-2.492849271462004,1.129653704402104,1.464924344846418,-2.069446307239705
-1.732176651854296,0.5451045617204529,-3.358229802424231,1.373268886036541,0.6112119168719296,-2.707879857613167,-0.7666882927311982,0.2606493862749746,-0.4154053238205161,-1.046693029940641
0.7365483151191903,0.6033995914452132,1.918241393240731,0.666687013250863,-0.5023995968620297,2.663732700749397,-1.116961426248353,-2.629500683724532,4.75790697487936,-2.536478634488803
0.4750080384810788,-0.91266929204992,0.9331733644954032,-4.419644210227299,0.4368891123660795,0.8526716925159992,-0.4496699980145186,2.103948985653736,-2.977399149688303,-0.5336472982712336
-1.465734907415033,-0.9792693636557656,-0.1202663070063065,-0.1181974177884627,-1.955519737999051,-2.516512536003411,0.488188251021214,-1.367282933577028,1.644951225978921,1.635786956653944
0.7074170427758961,-0.2063086140634641,3.112488457925795,1.404636605777103,-3.264338329520771,-3.858301006916197,-0.3545536234583345,-0.3691541695838197,-1.213680938471655,2.543878839622828
-3.281766328926023,-2.397254802039114,-2.66632539652876,2.292243974721562,-0.6553866159105485,1.888295194489423,-4.425594304629896,-2.419260177897918,-3.755241712831919,2.561500258716038
2.354207364691772,-0.8207460036025254,-0.4438774110728879,-5.031682953150397,0.7346668358615266,-0.510484996519461,-3.191064591298795,0.2182077947941191,-2.191139402530874,1.736260622150123
-2.358435675821344,0.9435549198759716,1.726385326065036,-2.266935528419403,0.8524443462644208,2.10908281029083,0.5903050778790406,-1.865380905625812,-2.663615148758356,-0.5693089981640486
2.735749044231759,0.1838963849774363,2.00482228517951,1.58709865392049,-0.7691198339270447,-1.16582035065974,-0.7820192639609612,0.7222886671503141,-5.805367149213539,-4.277219986783034
-0.1801298777956905,1.629514560520419,3.781695646236817,-3.90606798054413,-1.043350289944995,0.5203424812764605,-1.725595893085054,2.650321163278646,-2.492749450528322,0.3019187340919586
0.3112891981938319,-1.205862675876857,-1.951136319725332,5.980273053391449,-1.395546664410527,-4.077707895191482,0.604345304437515,-0.9798653747259879,-0.7397716256077208,-0.7152894683165064
-1.170446290454081,2.251592229650927,-2.456792967023284,-4.862983811834857,-2.415394261188122,4.212552721601083,0.2493749031368224,1.606425188360125,-2.245495787329377,1.354222364369863
-0.5845937558373749,1.159081679842854,-1.984626926439762,-0.8782782331846833,-1.697040861891804,-1.711092463635133,-1.861081974335066,-2.263862600176823,-2.117492125465256,-0.7992967143653338
-3.774144366386143,-0.6674232512183285,3.172299435801981,-1.781434432210684,-2.398482529592607,-0.04203540942408073,-1.649457132582347,2.096379776514765,2.135778395211941,-4.091962282718715
2.668687928023294,0.001635993125123657,-1.627240462035981,2.62235041075323,-1.414001839766134,0.2032802406106156,-0.8692994133436828,0.2504752509536649,-1.098203475459359,-1.280697022668969
-1.587849516939953,0.594498444544582,-1.287902526059004,2.484071073161856,-0.4321839595934423,2.542546775949124,-2.141902794158848,-2.704539510932195,-3.217967421804627,3.063861324862581
-2.906397249492312,1.438917694782392,-0.2222519358865607,-2.15486952511823,0.7702566905800421,-4.119919646128101,1.676315839356748,1.446549427840622,1.294030556148402,0.6264067423468243
-0.09941152223812852,1.049445614000491,-4.580218567382109,-1.137146589288818,0.3085815479176867,1.129251778097535,0.04421747147855358,1.460232572351078,-4.610550554685652,1.303338570938023
-0.8058288520437024,2.354569814497394,0.1851443897864197,1.834401941176387,3.628443961450337,-2.479266585659344,-0.5066423146837299,-0.9754140329934301,-1.663407553500889,-3.181806889227415
-1.29470789266974,0.4407960882920011,-4.249156472812943,-1.495900979264002,1.433725787287102,-4.018806219902931,0.145691273221023,0.8398898681797906,-0.5728171122098989,-0.4881724144403902
1.185677162140602,-0.5094572804156677,2.936008653768029,-2.234913245008605,-0.9008687205742616,-2.212124170596188,2.685467152806033,-1.854621699764667,-3.370410143179823,0.08049453720481271
0.3486501106894127,-0.8960860241763056,1.432262439373426,-5.397460028228395,0.9300743841229575,-2.302048287282787,-0.3336317896347445,2.600401636348482,0.5380034909525675,-0.6719068583484298
-1.183443678734753,0.5478007476931617,-1.547234326163632,-0.05540933749007882,2.566728803605904,-0.6541952213660204,-1.015905767073779,-2.043563185035881,-0.5589344582395378,-0.4859426629927108
-2.905054031000164,-3.312233668885002,-1.958146353859201,-4.094343207414143,-2.860669621274336,3.147582455605122,3.923886031920872,-1.067778077420076,-3.74067014009975,-0.9271698836035354
0.4008080825047479,-1.001415097084025,-2.62430196297375,-0.1039458556016052,3.269546792567944,-3.818698265047907,0.668638364036991,2.768028446658047,-0.9538719547075831,-4.667882547705568
-3.626661600458526,-2.124934924199281,-4.805991724033078,-1.828827489860256,-0.1190920511534165,2.588121072639409,0.2475020079225607,2.838274090640415,-1.240607939968946,-0.7810324454272261
-3.654354440926059,-1.233352204299556,2.751825363860684,0.09958632383413966,-2.180075837948563,1.056010876211378,-1.313857623930767,2.013741143896481,-0.5717755264271054,-2.852889555539083
-0.108843617969573,-0.7885372916854294,0.09679608705651807,-1.849650588049177,-1.575139020303874,1.224037901328237,0.1062950281490344,-1.445848361129388,1.269014676880041,-3.263388232507781
0.99987503070517,-0.05056829530047936,-0.4685334192228481,-1.334530592332392,-2.445543280590005,0.5082058175830231,-0.5384037990497201,2.458292003200772,-1.350378480382835,-4.965363178175215
-0.4938305769683373,-1.003698323738897,0.1965461567497059,2.850880177714942,-3.631895229541565,-0.9787800637063347,-1.768176290459674,4.209841096226453,-3.545927524923815,-4.535742955470048
-0.8628306325639503,-0.9254878518845208,-3.880675656015871,-1.858640600574982,3.210098576600953,3.373958147785683,-0.9424216765941339,-0.5490528304690215,-1.078151206611044,-3.581826661330095
-3.126441679972025,1.609821813558899,1.885054499009749,4.004395897737038,-3.308269993973172,-1.18168705940283,-2.75580735439384,0.5828290360528935,-5.144867791466002,-3.00975261762167
1.938344686593267,-2.224123286053403,-0.1518323613314219,-0.7555928300415345,1.922840607620661,0.9883663199820911,-4.305660060277534,-1.200397319590053,-0.5631370691924183,0.6642983101763915
-2.811465691533469,-0.528478624335121,0.8191980426758946,-1.143672940857244,0.01943852358835917,-0.1377588839622647,-0.7218007605576191,2.054892561987533,1.81840061223799,0.4523137254155288
-0.8475949769508212,-0.4039055662642239,2.447602892069213,-3.757684692204799,0.3954231826636597,-0.8447434085565073,-0.8438986453160356,-0.9563016547428865,2.727717989633037,-3.933004716050706
-4.616763488027231,1.11100851306886,-0.783166905068964,1.743629560929063,1.5441378268705,2.955146924357976,-2.666623634892057,0.4509311679589807,-2.115915768811332,0.2626257882469431
0.7020695134040417,-1.095136899486929,1.284294669321279,1.317919088035137,-2.729893972495141,-1.635730996049886,-0.5882881089792041,-2.036547225786335,1.084973829914511,3.067713381012235
-1.700406162541349,-1.49153901639343,1.001065980169999,-0.9355711871381717,-2.863654115644434,-0.2200059789124577,0.06929441757988151,-1.11783202919494,0.9878637779241962,2.66305449540411
-0.6094354738324865,-0.5701386811883322,-1.673705825187108,-1.161901831596738,-0.8864998024782099,1.286193843596821,-2.289375455781203,-2.649089418462376,1.314650617133406,1.575208786217342
-1.530382988490731,-1.585980502278641,1.255050636865511,0.163929499402169,1.550310575258868,0.6424777213581149,1.223235613917593,1.651530679566482,-0.7101652906009774,-2.525551682287823
-1.601629817057662,-2.406518950456533,-0.8480490071425081,2.321283100894289,-1.277814246241505,-1.196847830432516,0.9482901861807679,-0.7702411872921915,1.14476468146107,0.04829840295576322
-1.307624232425049,-0.8083180280502247,-2.789485845467392,0.5213190693872751,-1.974108078141919,-3.021195554787004,-1.9420844371591,-1.5604565495207,-2.233242425206274,-1.780334498211984
-2.622507890762045,1.237157127285025,-1.979106426442141,-3.214233759031057,1.28616270208831,-2.911137703824841,-2.082137767291927,-0.1067732028547158,-2.140883512452302,0.5391614462060416
-1.570047042001372,-0.4319192102285324,-0.8593696883496166,-1.464854840584914,-1.570985545867475,-0.7548872140944785,-0.117604898955976,0.01666768099185818,3.315805956446634,0.2807864029209666
-2.196936181922404,0.08009476041484993,-4.859338373510529,-0.5709833832764016,1.007059330742846,-0.4951395107370145,-1.53154432363242,2.39864182739773,0.5604069232431824,0.8533746877774989
-0.2538454611325053,-2.106683929326372,-2.108116366107715,0.83092191341732,2.92301094801993,0.3179875571062791,0.4968968533907129,-1.093087002410301,0.8066477163256578,-2.381639420973557
-2.690416638269318,-0.2207058816871366,0.8405267708210407,-0.1150575851445159,2.3070223659029,0.9857851759402361,-0.8890801428964614,-0.3291507310338033,-0.8268666639824862,-2.119872211727691
0.1525703348891564,0.7180594104777467,0.4389069365208294,1.318169585374599,-1.4618843797601,2.583638653407661,-2.950812212976572,-4.166258331844603,-3.568081216429209,1.913500752896488
-1.816587116963591,-1.043603134249293,-3.160834680294636,3.321087793159406,-0.5497450774173589,3.466856315799522,-2.220707930871264,1.739816834251271,-0.9642351003654649,0.3411228739973779
0.2450431291407892,-1.76332266440945,-0.2496621955187675,-1.183469684002633,-5.683195737623337,2.826827175808449,-2.143485262800124,2.499941083621887,-0.6713982531248734,1.396837963860113
1.700720047193805,-1.431717085317594,-0.9835710907000089,-2.954828672141165,-2.341257766557797,5.029231245373019,2.481963712325996,-0.9013226044650421,1.033518805417481,0.7652087985274707
2.328364675625815,-1.148566602763403,-1.693111069646678,0.8499480762295353,0.1408740469168512,-2.967196912368721,2.465138708760178,-0.2091701156601168,-3.734066375331815,1.338041024540891
0.6772326647105917,0.8959143434647467,-0.5372015162229682,-0.2972035497699547,0.9812056810312498,4.488188887716956,0.8989181926194612,-0.3329055227633321,-2.734904489517691,-1.411991504767807
-0.8133761137618911,1.000575853021014,0.5606468473131764,2.770294981459096,1.558637471174068,-0.5723700798165706,-1.661615803802605,1.175476375740148,-1.812638200027731,-2.752138640393176
1.476481775932353,-1.66333994644395,-3.546731690255684,-0.2851310935520461,2.400620122480746,0.04547427106186189,1.880405299978194,-0.751801274730706,-1.080957449182149,-2.081202664715434
-0.2116921368203585,-2.580691621905425,2.241546930409497,-2.680195442413644,3.419933345452321,-1.653156098761098,0.8921937982210832,-2.434241898290688,-1.458890160807975,-3.981950186182227
